{"checkpoints":112,"sinceLastCheckpoint":0,"frameCounter":3151,"net":[[{"value":0.5563892117562381,"weights":[],"bias":0.322640491333588},{"value":-0.9535216686984211,"weights":[],"bias":-0.6007014022351495},{"value":0.011999136093300802,"weights":[],"bias":-0.7311905055871478},{"value":0.015997952393132134,"weights":[],"bias":1.0575502602039402},{"value":0.023993090984551452,"weights":[],"bias":-0.9049013107189442},{"value":0.36818241543196906,"weights":[],"bias":0.8117299819528232},{"value":0.3047757271037837,"weights":[],"bias":0.16833492815746992},{"value":0.17333584823348938,"weights":[],"bias":0.05925460395907563},{"value":0.12305754259872989,"weights":[],"bias":-0.5350160989329844}],[{"value":-0.6123241542283425,"weights":[-0.07303428644850195,0.8077813854154606,0.735580166053802,-0.2744301517874202,-0.8470241426233318,-0.7721595598102923,0.6351946221275993,0.9305128309509019,0.4548333464934626],"bias":-0.07429793215595201},{"value":0.5009206833567507,"weights":[0.19986374296451098,0.578488784954427,0.04213013454268921,-0.4421108036242944,0.47605753381360133,0.9089089413605693,0.5394381144475503,-0.8461945342801339,0.4847876572818985],"bias":0.6022810095217378},{"value":0.3424410150673717,"weights":[0.37145298801785426,-0.02223270596805829,-0.23754619412963057,0.9137383031355112,1.1190803198334907,-0.1093129518779202,0.14276595967125666,-0.5338398864613725,0.16267935033140274],"bias":0.1672381588016299},{"value":-0.43612937043914346,"weights":[-0.49323280984114165,0.36753016280376455,0.9974122771502072,0.5857234484286832,-0.4098355797464186,-0.7947059947653328,0.17589461846116844,0.15699458614189254,-0.6310250093203328],"bias":0.4181494411581801},{"value":-0.20107089044100712,"weights":[-0.8889621034530019,0.7538265829202023,-0.5069405851602867,-0.45194953308211944,-0.36738828590351363,-0.6908969078432478,0.6049299555059662,0.7271089292304344,0.14134836596447808],"bias":0.9568438611878309},{"value":0.21823217709240242,"weights":[-0.6904425049137994,-0.07616858815508148,0.319071960041831,-0.1678543471152108,0.9508854314325053,0.7925262699273836,-0.8211203669279684,0.306556159632539,0.6317827101659075],"bias":0.33877110936675214},{"value":-0.878683431230491,"weights":[-0.36486766329723813,0.7892416807367236,0.16574235044715319,1.1032739223860437,0.8139183242617208,-0.7561273874683665,-1.008085935282151,-0.6294984332949083,0.06352080738523089],"bias":-0.2372103022734111},{"value":-0.8211419331044699,"weights":[0.44345954780180324,0.40760259332955023,0.2405518803421579,-0.3754072739537034,0.41482093738178194,-0.9635775760341001,-0.47373456820488546,0.9463282645252157,-0.7543066599288025],"bias":-0.875738376044724},{"value":-0.33019600297674173,"weights":[-0.36490025647333546,0.7595992917384518,-0.7690753407794422,-0.371487403521541,0.6662099117776697,-0.5630942194987995,-0.018639335607615833,-0.5129613421980972,-0.3562288468027281],"bias":0.9224448684709513},{"value":0.4053417484749334,"weights":[-0.47810369316716683,-0.08059448458126595,-0.06774591204613213,0.3835439493473781,0.6813952570804493,0.6538475571487141,0.16794602063775604,1.0226798750902417,-0.17457926908200155],"bias":0.16318748332932503}],[{"value":0.6772384440591975,"weights":[0.8297006616785548,-0.8696789747897928,0.38763639271229117,-0.49964600855957103,0.19679024499289466,-0.4091652669998102,-1.1307714340385189,-0.7403410717758521,0.622972911647352,0.4615367022124907],"bias":0.05945927271249993},{"value":0.3589246746482261,"weights":[0.5538383867642825,0.9344521466072434,0.5042511553824894,-0.3441150451153856,-1.1732560684785827,-0.0034437999371162847,-0.034745501478103506,0.65502856847828,0.22324276017273054,0.2687602286058077],"bias":0.16979489275338427},{"value":0.731452710910692,"weights":[-0.23948827950809815,-0.19179576367846335,0.002585633889181531,-0.05152660053199971,0.4692478166140634,0.20331453501060748,0.6878777350493904,-0.10395483894746427,-1.077606928889178,0.7647098616023887],"bias":0.9020102826638101},{"value":0.34251246102174404,"weights":[0.2692146598256581,-0.1282745629213234,0.2558366212596795,0.13923629767048828,0.7684340126323794,-0.4372409007613451,-0.9905995738912713,0.8706585900771336,0.02712500604385744,-0.8214078705536102],"bias":1.0031298909836193},{"value":0.5194334220646597,"weights":[0.11263029916369209,0.1571420723290809,-0.7028278142719209,-0.9128775594855367,0.9096040649791304,-0.8711005155868681,-0.3652273501884084,-0.584303944975613,-0.12743054028188694,0.8070841497773029],"bias":-0.3562735089277808},{"value":-0.07957501263395789,"weights":[0.47857069100650446,0.84357070697208,-0.561199340969016,0.47913260743692004,1.0577852574431301,-0.34700885546308224,-0.1764870443404432,-0.16384387981392168,-0.050710667810059847,0.7129123767296506],"bias":-0.11512291360887449},{"value":-0.28845177574212016,"weights":[1.2191199865745694,-0.24677035984311635,0.4612964384180764,0.5815462433161195,0.3225582132636606,0.6358720606193534,0.2912826824477184,-0.6176354375130998,0.860351002317665,0.9177915861391843],"bias":0.25144814450446007},{"value":-0.6005101416698471,"weights":[0.43799390230102875,-0.6209722784795498,-0.5755228261010599,-0.7204727658897473,0.721906047597808,-0.39615910356098144,-0.876004098206258,0.39931035681582727,0.536391723929352,-0.024913667299724898],"bias":-0.31189959547501944},{"value":0.7258049391497123,"weights":[0.32710460010460657,0.3179560646267687,-0.24426720759767884,-0.3228214769032423,-0.8162032202043851,-0.3865988049963792,0.9492161681245329,-1.1055123992966782,-0.5983849695295642,0.2318884414993646],"bias":0.5939331189722618},{"value":-0.7478139257899651,"weights":[0.5410637847921718,0.5812009357221108,0.7281296147305398,0.715573594371265,0.5652086783088651,1.220433306998005,0.7311793514490176,-0.4695863866953747,0.01689405847627011,-0.5871707258130253],"bias":-0.6756986847344174}],[{"value":-0.261994643567748,"weights":[-0.026949238623234992,-0.7822923219932661,-0.5051012520685068,-0.6518884297377394,-1.093125207935762,-0.32990757227900896,-0.18061773595731556,-0.7440759163741467,-0.041684351087376725,0.4101961367919056],"bias":0.9999289505212208},{"value":0.22178098427071646,"weights":[0.0007212119807699369,-1.0969579516313626,-0.6164984841605349,-0.5178341280920065,-0.2744449552183263,-0.9389187128447547,0.46763205576428873,-1.1192922686910438,-0.28050975304578374,-0.1091723331515021],"bias":0.901525261249952},{"value":0.6674399364235893,"weights":[-0.015464636250684373,0.605066020655171,-0.5835500028019359,0.5345949219274515,-0.38096330590256083,0.016265718266984877,0.04622793331660857,-0.9819866157185637,-0.1392973966347315,-0.7351434845451457],"bias":0.10750436585260863},{"value":0.4751936216057888,"weights":[-0.6604101413366653,0.5704254460868348,-0.3701370888079642,0.3317059275203,0.6246755702459285,-0.08327992574517103,-0.769044861830174,-0.7906913414778748,0.7752314851242265,0.8058880740365706],"bias":-0.04806205267137769},{"value":0.24132976624119445,"weights":[-0.11874292765922044,0.33237973821096606,-0.43672188493375164,0.7683804351303235,-0.8425529352739868,-1.0742408137678083,1.2951946215792245,-0.44221973738229664,-0.07011612587213446,-0.8622568432669225],"bias":0.13235361171736282}],[{"value":0.001629551370073654,"weights":[0.004380523955485348,0.14169371138292247,-0.55646019201585,-0.5738746494437382,-0.06810512811090176],"bias":0.6318933794156162},{"value":0.006122958826846499,"weights":[-1.0293611602839412,-0.6347777048993244,-0.18478692152491139,-0.5051024967519172,0.6432903662346753],"bias":0.08532812966099455}]]}