{"score":[5,599,0,-29802],"net":[[{"value":0.7633291691695778,"weights":[],"bias":0.3554953575729294},{"value":0.9935445238094014,"weights":[],"bias":0.5847524915806042},{"value":0.13864784453440615,"weights":[],"bias":0.5289814258713604},{"value":0.19611613513818402,"weights":[],"bias":-0.3180902366105189},{"value":0.33871946827274163,"weights":[],"bias":0.48208372168004504},{"value":0.7071067811865475,"weights":[],"bias":0.48027812558142896},{"value":0.11914522061843068,"weights":[],"bias":-0.8216560062783096},{"value":0.0718140984736978,"weights":[],"bias":0.570093451117405},{"value":0.043957469743978406,"weights":[],"bias":0.22530870688816862}],[{"value":0.8914628065444754,"weights":[0.6740890737266848,0.47697705999437573,0.5152207784232959,0.4565129473042037,0.8919488700678831,0.1067919025140235,0.8279264144592372,-0.7937784497267358,-0.8197340475419803],"bias":0.4348484306669333},{"value":0.3332160768685982,"weights":[-0.674903273680206,0.5251355746341589,0.6358600400173408,0.8069199202170029,-0.21872008079255595,0.48683607964843373,-0.8384904571287138,-0.663473937463346,0.09700421050181073],"bias":-0.02644486520641994},{"value":0.8047817367415819,"weights":[0.898506027880988,1.0425299620263062,-0.09600181440313167,0.5834773931133823,0.6594766861933518,-0.12550026261705594,0.35864541231978514,-0.06957769615520742,0.8568218033277086],"bias":-0.676977174587023},{"value":0.23304883339346277,"weights":[0.4820509455129422,-0.7317438564897641,0.2725361415312682,0.08576248651986494,-0.7067907909095851,0.012844642610025589,-0.17665939245384565,-1.190864828385427,-0.1773042432362919],"bias":0.8887822368090313},{"value":0.020646646401898477,"weights":[0.03278728215074972,-0.10283378333930568,0.4710702656616606,0.5240692353144234,0.49160067789925793,-0.4922212657308092,-0.742554608685799,0.7316861833413774,-1.0026734691563606],"bias":0.19124190435615274}],[{"value":-0.00042436382311655905,"weights":[0.07026743549168567,0.8875987874129876,-0.8985230084977809,-0.6796656375304764,-0.22863364269277503],"bias":0.5274033542929638},{"value":-0.010898755190018893,"weights":[-0.2841857649353453,-0.9361362946372986,0.25272140393832954,-0.45154908366848695,-0.8288903399685615],"bias":0.4733385231130753}]]}