{"checkpoints":24,"sinceLastCheckpoint":51,"frameCounter":692,"net":[[{"value":0.7608957099273768,"weights":[],"bias":0.5354454864828658},{"value":0.9674486669132311,"weights":[],"bias":-0.5810785229471116},{"value":0.10344208971095142,"weights":[],"bias":-0.7575525183381748},{"value":0.14640525516390332,"weights":[],"bias":1.0623269262165773},{"value":0.24800241028513745,"weights":[],"bias":-0.8634996652694337},{"value":0.7071067811865475,"weights":[],"bias":0.6806669246376063},{"value":0.22599765995548826,"weights":[],"bias":0.23077783032931082},{"value":0.12305754259872988,"weights":[],"bias":-0.2235248070530439},{"value":0.08370520712978544,"weights":[],"bias":-0.7754478218616112}],[{"value":-0.3718243374536889,"weights":[-0.18642698434275484,0.7440494226498894,0.753177608597607,-0.5562641963836699,-0.9254337715895592,-0.8881524158426403,0.4741587454215496,0.7807239305282592,0.48228914764729575],"bias":-0.3610647899808092},{"value":0.904976046364679,"weights":[0.5359244045673845,0.446457905383225,-0.06653096938076172,-0.4029245546591137,0.6267933268944972,0.9349905239806086,0.46079827372494825,-0.9838408758363746,0.3534877535658791],"bias":0.5239618216166105},{"value":0.687523498849511,"weights":[0.409733478994442,0.04150888569074866,-0.09708851115582101,0.727197346311891,0.9324300681293693,0.04950741799538169,0.18541134576658697,-0.5796601179611209,0.285381573843974],"bias":0.23773515139619805},{"value":-0.534970151707166,"weights":[-0.6343251339031792,0.2570677217029572,0.9923038493276397,0.6045383936279434,-0.47289238787815396,-0.9762973317423955,0.10784033207797693,0.25469152325173294,-0.9639080310722669],"bias":0.24220006041297637},{"value":0.4080558126454735,"weights":[-0.8591509859211713,0.8650030601181049,-0.6201440509262149,-0.47049301036824565,-0.3689334787130521,-0.6301600893168479,0.4199666998814255,0.7948673973313249,0.28757357526297994],"bias":0.7171600390010832},{"value":0.05628156875840121,"weights":[-0.8463082369907385,0.17281064419177122,0.3246612704721015,-0.1768577926932095,0.9755658161899705,0.4897924281438007,-1.006442796773598,0.20704628761226768,0.7684660903445322],"bias":0.07481934491634663},{"value":-0.15855193954566305,"weights":[-0.12562230367251723,0.5414564260394567,0.3337061976598104,0.6983128744357083,0.9337551030880475,-0.6259518703490582,-0.835798369177282,-0.5352046679141546,0.2028108256015484],"bias":-0.276770560657977},{"value":-0.6452290496898642,"weights":[0.45402244452708157,0.35216219174361174,0.16676912739714167,-0.012901035251818557,0.5584858061971911,-0.9185962060816788,-0.6303450266283617,1.0380822686196374,-0.7887775804382039],"bias":-0.9543001189066694},{"value":0.7389690648425525,"weights":[-0.5368477045098297,0.9781005991752831,-0.7965017745266008,-0.367366922318881,0.5349492591833684,-0.45919210447135633,0.241442854805904,-0.4455286806256734,-0.27090579597457093],"bias":0.9101821881765346},{"value":0.7377106108480384,"weights":[-0.6036977273749299,0.22261568823825278,-0.10742530361100228,0.5954846096692257,0.8186012008478637,0.7630269121284192,0.3209849991812347,0.9217986480862647,-0.17080032607613305],"bias":0.3463912442737362}],[{"value":0.5265016764341302,"weights":[0.8536651134005531,-0.8621942307529877,0.32806948328200713,-0.5984886546078557,-0.1199110774973412,-0.4684891233391098,-0.9348771961698724,-0.9661795135910465,0.7666921139868051,0.32460581917177384],"bias":-0.33112643361665106},{"value":0.4025984347354797,"weights":[0.4355711011928964,0.7244363201936196,0.559204192083969,-0.11874769192564134,-0.7867814333145855,-0.2262986927085362,-0.0626389670275029,0.7614922045936172,0.2674190668820863,0.029903537756176296],"bias":0.0937011151417826},{"value":0.37487802286641153,"weights":[-0.35513641990352457,-0.23029812973677072,0.03249786231988508,0.07916837435224773,0.20329251437653434,0.26340037776637365,0.626170980553129,-0.06166599784453247,-1.0490844694734582,0.7037541952790306],"bias":0.7185291032454724},{"value":0.04138192294498839,"weights":[0.4099891119079356,-0.21269204098260086,0.31075743574858067,0.09036135115914988,0.8170766732363338,-0.2521638369471731,-0.8515612616327942,0.7548627132806838,0.17678850284758008,-0.8439176237316125],"bias":0.7457778224770066},{"value":0.6906586612043321,"weights":[-0.060143680225429576,0.16775381896776909,-0.41272139593002016,-0.8540205265737468,0.7760957587202709,-0.748136634770582,-0.2456623231525195,-0.7707906998724934,-0.2100520791041866,0.7239837466145761],"bias":-0.5820063757028726},{"value":0.7064612223881923,"weights":[0.5109991228579682,0.8269372121389942,-0.5194177141430183,0.4761271664297955,0.7948180362062437,-0.3783546261575114,-0.21255189992909146,-0.2321355381669331,-0.19053140510259858,0.6096543302904956],"bias":0.25617733742187754},{"value":0.6538325164349005,"weights":[1.0586534507834038,-0.2949780132244279,0.30829083229016413,0.5404294589242338,0.1910049482846986,0.6757862389115156,0.20728401076905933,-0.5247382738837015,0.7540886250766698,0.9059265279450778],"bias":-0.045381188985923034},{"value":-0.4089081311927075,"weights":[0.5563391935049997,-0.5899136665620011,-0.6037596980185631,-0.856093695657269,0.8465126177632221,-0.2786797011010811,-0.6148683494326955,0.44292169639943524,0.7512429763633,-0.25546348519230744],"bias":-0.2583784877166926},{"value":0.5570185806006849,"weights":[0.4242645035399254,0.2868431841483806,-0.32143396860687323,-0.5661174256226902,-0.8912180482198911,-0.4001024245493031,0.8841257358543037,-1.0762404336411198,-0.4686096920168197,0.3208436688614766],"bias":0.42854744197189626},{"value":-0.037612072251900205,"weights":[0.4901473768588575,0.4787249449927859,0.8819159905167469,0.6670969141482365,0.5879930038670326,1.0402948365214097,0.9334264690037379,-0.637517675334489,-0.0168408079914088,-0.6265546193557385],"bias":-0.6252565273152569}],[{"value":-0.45328876196013257,"weights":[-0.0464294764158656,-0.8856242627173848,-0.29676497926634227,-0.5590486374405262,-0.9654339576417178,-0.536592131113871,-0.20461961543262724,-0.8128065759165172,-0.08305590257915146,0.5366052686268389],"bias":0.9205844311162371},{"value":-0.030160414894388216,"weights":[0.04072334706657024,-0.8615076052269793,-0.6565916352479934,-0.21839497237201544,-0.12499887483084308,-0.9706508217658227,0.3671586023757775,-0.8790139875647943,-0.4037247384007245,-0.4048396452277065],"bias":0.9326237833474824},{"value":0.04986048687831157,"weights":[0.10766220454544055,0.5248681710476868,-0.4113113449733216,0.5824515452127619,-0.40842814991741583,0.006006021801818799,0.061551313308050706,-0.8665498719285586,-0.13349745428187837,-0.9449873482915824],"bias":-0.16590872649346738},{"value":0.6164344407136255,"weights":[-0.6399724757061457,0.8184012711887755,-0.4008823149120193,0.11946899023034992,0.6330819396532923,0.019357522468111163,-0.6951438852730911,-0.7030034642228189,0.8715652298934048,0.7953791813027911],"bias":0.19622754024006567},{"value":-0.25983730700812746,"weights":[-0.08512809628679835,0.1897077863407856,-0.3956451394876737,0.9540147573016216,-1.0010519443520567,-0.9499578500117754,1.0389711701995863,-0.5629970519350054,0.14329223973484606,-0.8213446217649741],"bias":0.15046164813430507}],[{"value":-0.001820760305500992,"weights":[0.28469370504392816,0.31807780905877725,-0.7384894066263377,-0.5876093943193212,-0.031053942627670007],"bias":0.5277961893533533},{"value":0.0017170314319531865,"weights":[-0.8630134235352369,-0.5135869616473612,-0.2136443625219961,-0.3623171434881259,0.6349326692730797],"bias":-0.005990875637249982}]]}