{"checkpoints":56,"sinceLastCheckpoint":5,"frameCounter":1576,"net":[[{"value":0.41536647238924723,"weights":[],"bias":0.34153147013556184},{"value":-0.8164569529757021,"weights":[],"bias":-0.46038570313639143},{"value":0,"weights":[],"bias":-0.6452700043982603},{"value":0,"weights":[],"bias":1.107695916996029},{"value":0,"weights":[],"bias":-0.8684953645404623},{"value":0,"weights":[],"bias":0.6746162724925031},{"value":0,"weights":[],"bias":0.24858389571054423},{"value":0,"weights":[],"bias":-0.17354987962327317},{"value":0,"weights":[],"bias":-0.6437934617894182}],[{"value":-0.6919622660593056,"weights":[-0.16266864567488476,0.6758355435886945,0.8052633433503793,-0.4072534758869016,-0.8175825941599241,-0.7979505378641683,0.5482341171810768,0.9287380365761901,0.43126387766311985],"bias":-0.339126817429329},{"value":0.3367054838970601,"weights":[0.3342213215994367,0.4433767363564334,-0.032161282795595006,-0.4163218520030632,0.5203877848355345,0.9418248600669351,0.5827482107898564,-0.8514041111235559,0.49817260959952586],"bias":0.5807585469043455},{"value":0.41999127631041955,"weights":[0.29845218239948396,-0.06037713320876582,-0.16255028985828973,0.8103675495399757,1.1169378406897637,0.02608362194825342,0.16669217269859493,-0.5145323553726453,0.185279210985639],"bias":0.2895235930723022},{"value":-0.05132623178961334,"weights":[-0.46101114495843115,0.27947771262353455,0.9067429441167861,0.4763442136389882,-0.3673621232042669,-0.9158045355106742,0.12899258415534887,0.2182687668442012,-0.7599120817678855],"bias":0.36827612257492287},{"value":0.002062774634654332,"weights":[-0.86046513422025,0.6831752612364285,-0.5415617158286868,-0.3750852219661153,-0.2537609146100346,-0.6028819607574638,0.507422907666045,0.8057012520148534,0.26503003839131317],"bias":0.9172543385757408},{"value":-0.2317295714668614,"weights":[-0.7208245937467046,0.00802121120065151,0.2704752922097595,-0.24863932729576782,0.9932930447344148,0.6675472730283889,-0.8418495464822674,0.06360796390463941,0.8322484795641352],"bias":0.06774165271408014},{"value":-0.7146186048303437,"weights":[-0.31741194077129103,0.7352350538314618,0.2938564786865588,0.7635120953944243,0.8015908247860674,-0.7568567872534178,-0.8855096635521784,-0.5109019031229831,0.17141458614840588],"bias":-0.28946251712635424},{"value":-0.7538943590677458,"weights":[0.3964782973983207,0.4052505053266486,0.21122534367501966,-0.156228964207778,0.5180785777333496,-1.0988606288340037,-0.42156839898796594,1.0077879275400243,-0.7847399832614661],"bias":-0.9813017801505484},{"value":-0.07801906064332537,"weights":[-0.4399550448539504,0.95706871288051,-0.9157201030377066,-0.3773999893998736,0.5402072511959641,-0.41733140033729,0.13987921002256465,-0.5988413793571898,-0.202697967321667],"bias":0.8858903799223804},{"value":-0.09929890531481597,"weights":[-0.5807856663588408,0.1563639309268307,-0.2032298815690497,0.3490206464208066,0.8903626987241593,0.7145213377844493,0.2924191769853554,0.9918288096699537,-0.18760443582370373],"bias":0.2691111992149205}],[{"value":0.5141148217321144,"weights":[0.8411006855826445,-0.7735942554352787,0.25597524127154203,-0.646916309619761,-0.021697889540097867,-0.5620736322147181,-1.1007609664278395,-0.9266958882252934,0.6846776168896541,0.4499694045461041],"bias":-0.2161917259465735},{"value":-0.29974996441810164,"weights":[0.3773512903811523,0.6529288687319579,0.594147914289251,-0.10785394148230161,-0.9478219265449987,-0.2838758319706237,0.014834960335000813,0.715240039491311,0.28224212307928187,0.21062498165076488],"bias":0.0009225741415277156},{"value":0.27471346961268334,"weights":[-0.19423030906548067,-0.1629491059379221,0.10438632584847805,0.03274020152657632,0.38357980104532235,0.24615901821298553,0.6572001689728302,-0.01103921462073243,-1.1900546192794175,0.6982811156879698],"bias":0.6580783267549882},{"value":0.5918829922497272,"weights":[0.48196552465582837,-0.17127421380369928,0.08821081121443729,0.18768001992805072,0.8312139316263982,-0.4020992577394775,-0.8926906320278266,0.8194062299272593,0.11161675530644287,-0.8681307280111451],"bias":0.9055037407200123},{"value":0.27518888927056423,"weights":[0.06691118168290333,0.14150105908096994,-0.4191934882401421,-1.0160123775375143,0.8161474778157579,-0.6917511099302859,-0.3103358050730157,-0.738708847505208,-0.15164866401873064,0.7453960860178761],"bias":-0.4696714217525341},{"value":0.1132503775830202,"weights":[0.4159017270683455,0.7968217896020859,-0.4965270138171662,0.6170640446624885,0.904517220228187,-0.31309523457715005,-0.17443579521987707,-0.22200405742835977,-0.06601777573192613,0.6731177308869616],"bias":0.06893361363097586},{"value":-0.5568256906220033,"weights":[1.0807935684822845,-0.4540339286297926,0.4414864659242867,0.5092059213818261,0.2317559659789642,0.6212405808835455,0.2882991615606149,-0.611340003222444,0.7378875126375074,0.8273788809042331],"bias":0.09944026012415301},{"value":-0.6493941541804557,"weights":[0.48576875835082506,-0.5855098258021677,-0.5891915261332947,-0.6706714089686279,0.9024143857517938,-0.36576775418689417,-0.6717710680688685,0.3536533229056748,0.6920229924912775,-0.005432926357217455],"bias":-0.3542598762881056},{"value":0.3190158043792312,"weights":[0.4366796535243079,0.33476407052108265,-0.17000950482871335,-0.3873557016603744,-0.8476704882760809,-0.41035373962709126,1.0319177535319446,-1.117245958549818,-0.4968496824092049,0.2867145742309214],"bias":0.3690798419173125},{"value":-0.6610634030404133,"weights":[0.5411953802047298,0.5753596472181534,0.7471500822633933,0.6902297266399335,0.48241005772934004,1.1390177098473713,0.8196319623766384,-0.49582074549860333,0.1007150146736392,-0.48016231865475156],"bias":-0.5435848894112085}],[{"value":0.5788804744353072,"weights":[0.09799191829433036,-0.9340042736196126,-0.4670910614366656,-0.6928777702558092,-0.8630449156365391,-0.48204728489586823,-0.16483965918754268,-0.7125420264582198,-0.09153092110022151,0.3525077758529853],"bias":0.9178101071443437},{"value":0.7351620786836031,"weights":[0.10286914580721133,-0.9093653154784558,-0.5614784458436001,-0.3202385170206291,-0.13628852198551245,-0.9651523294698409,0.35811686135272675,-0.9224767538490635,-0.3192843089505252,-0.25485699266248185],"bias":0.7833509677717928},{"value":0.63114579695475,"weights":[0.020516919096704375,0.6300699068636261,-0.5338291501554842,0.4721798391986021,-0.42182127994106217,-0.018043079990508554,0.18169181150420988,-1.00856686198631,-0.08170553891043815,-0.8547818675726804],"bias":-0.11548797261640369},{"value":0.5354980462717108,"weights":[-0.6240149223165053,0.6948580463416494,-0.41353809266219693,0.2626659427221194,0.5912799118889012,-0.07544952013375283,-0.6820273872966148,-0.7378136495439925,0.8747791171383386,0.8049970061969296],"bias":0.3613237809639287},{"value":0.3223456867397406,"weights":[0.009782546707128872,0.2500470306151167,-0.4476204231105461,0.7780829941312236,-0.9621597981685769,-1.0773365691116383,1.2502002454073287,-0.5911903784031941,0.06264939324085779,-0.9290784691040643],"bias":0.13772414765920077}],[{"value":-0.005189168565784793,"weights":[0.11570237078849548,0.193062578094516,-0.6306744735408857,-0.6558516582454418,-0.03510825250054325],"bias":0.5464724506628942},{"value":-0.7715731160646161,"weights":[-1.0388332854238544,-0.6348070907914879,-0.2212209071481246,-0.39958674536576894,0.6135390517212078],"bias":0.010978258447339809}]]}