{"maps":2,"checkpoints":228,"sinceLastCheckpoint":0,"frameCounter":6708,"net":[[{"value":0.5818098136533155,"weights":[],"bias":0.3481467735180748},{"value":-0.9533104581073214,"weights":[],"bias":-0.6996953809789876},{"value":0.027989030449674355,"weights":[],"bias":-0.7424042831695471},{"value":0.03996803834887157,"weights":[],"bias":1.047539624990137},{"value":0.08370520712978541,"weights":[],"bias":-0.8958085825450286},{"value":0.46135273664198945,"weights":[],"bias":0.7139714401987994},{"value":0.25886483308141084,"weights":[],"bias":0.26441573270174645},{"value":0.1464052551639033,"weights":[],"bias":0.10849880221789863},{"value":0.10344208971095142,"weights":[],"bias":-0.4516769501301748}],[{"value":-0.6758248341425285,"weights":[-0.10739767642071896,0.7636074941250155,0.7303696748536999,-0.29196800963786235,-0.7847964323661161,-0.7249286088202328,0.7170622938981633,0.8469081092470007,0.5501569791712617],"bias":-0.10163384232941369},{"value":0.6116605599517682,"weights":[0.3306617978751591,0.6621040465425004,-0.09527781365883907,-0.29190011324150456,0.3889157339555547,0.9409044495411677,0.526831564020633,-0.7197036313271039,0.4748030141850333],"bias":0.6795317786578394},{"value":0.5439670643562183,"weights":[0.39066112019565746,-0.05862374988775201,-0.27297554515751643,0.9312764879558535,1.1940106237334147,0.056051450951781726,0.19258093664289005,-0.5896065802429651,0.27812015825749226],"bias":0.21740660540767504},{"value":-0.5133199718692865,"weights":[-0.4522372357497989,0.3368009661469802,0.9513604795394468,0.6188318415808894,-0.4759513593167486,-0.8578788752922605,0.1654766225824802,0.1713353460776358,-0.7358763912033108],"bias":0.3785178038026071},{"value":-0.2527713396605622,"weights":[-0.9407884744401019,0.6502598814327011,-0.4295242173950349,-0.3925116868448182,-0.3199930649468931,-0.653469377045337,0.6102499161544837,0.5253524682371346,0.22139101967229696],"bias":1.004191284323155},{"value":0.48820302224452816,"weights":[-0.8269692051477129,-0.2106859258062178,0.2843986539478779,-0.19084768453020118,0.9615341713959973,0.8527330469477266,-0.9159490812809183,0.37456922238825474,0.6848076304403312],"bias":0.4768889878408891},{"value":-0.8636175537030708,"weights":[-0.4426917650776287,0.7686183713054051,0.19142290894949915,1.0534091234146532,0.8369230136249849,-0.7176115285998728,-1.0255560100936618,-0.5258955113758564,0.0811938437636283],"bias":-0.17509896922473772},{"value":-0.8065727169986737,"weights":[0.4251620112619067,0.28692563136847166,0.16694505499453477,-0.3518408522952909,0.4321936023772426,-0.9830500559265205,-0.38261591650781807,0.8411162868420587,-0.7702487658516688],"bias":-0.8559582259192572},{"value":-0.22907157245303703,"weights":[-0.23374323874755076,0.737538679634025,-0.7809407934444592,-0.4480974809037718,0.8418180454020725,-0.6565652346333848,-0.00460876968420082,-0.5268665616554058,-0.3903211071203765],"bias":0.9946840556083156},{"value":0.48940938223751335,"weights":[-0.6301462451789793,-0.16358324398224705,-0.0480384142241715,0.4831856013594216,0.6667596574972131,0.6910318444598846,0.12497059711116708,1.0860764221636225,-0.26852753054283585],"bias":0.21572522785162007}],[{"value":0.7593827749643167,"weights":[0.754000498511738,-0.7514950650731005,0.3600275259245515,-0.5175234142096939,0.2089087344410137,-0.4374626280093101,-1.1984664615389924,-0.814504416963243,0.5636144685137153,0.46501676342502424],"bias":0.15078600647500462},{"value":0.540567626735293,"weights":[0.6192667217423851,0.8666543985079688,0.4307151937468054,-0.3341449085384512,-1.1578416733014938,0.0695845595897111,-0.10039593092132448,0.6391290992929214,0.2311874806231335,0.3521341231581841],"bias":0.10791799154522429},{"value":0.6636436442319713,"weights":[-0.14217614975177123,-0.21555101958833378,0.016094131253782187,-0.03632890369231216,0.3753967683541743,0.19828844676032747,0.7877657504122825,-0.053794660435114286,-1.0780846036063176,0.7788091807056542],"bias":0.9024295096108014},{"value":0.2605357476881206,"weights":[0.2775928698483068,0.01123776743768927,0.1641046780705664,0.22707818643623762,0.7656301856295468,-0.38316884233645315,-0.9931172436921694,0.7872989843142234,0.03091688287116398,-0.7977165534934766],"bias":1.0333082000433766},{"value":0.21054810918391847,"weights":[0.1312372463466488,0.09544996784746111,-0.6681839612937601,-0.9065403368394893,0.9465426646575045,-0.8720537843010929,-0.3957482189631205,-0.5794206599832588,-0.09172884334293022,0.7124364894361932],"bias":-0.36999612183995806},{"value":-0.05787489051662126,"weights":[0.3705837834440172,0.7505032811264062,-0.4344982282760722,0.45656735856941405,1.0002214793224877,-0.2646049545833043,-0.14135005800262268,-0.02481059415117258,-0.05739773075286983,0.8474840365609883],"bias":0.01615177035889058},{"value":-0.1254631969006753,"weights":[1.2201087757478488,-0.3750506438832175,0.5063093046513791,0.5153796528339109,0.43898110128465223,0.5815435214077318,0.42160450591635606,-0.6862069186687326,0.8706297722496955,0.8957801912855724],"bias":0.3153732224954838},{"value":-0.7547238838342787,"weights":[0.4620525879165219,-0.66057763270205,-0.5936980776185361,-0.8601200799101035,0.862490178119038,-0.4579176133291471,-0.8422401090446252,0.452991463690352,0.6263180564279276,-0.056466370360976195],"bias":-0.3019941729717652},{"value":0.7385118501995848,"weights":[0.274100030135794,0.470565725991446,-0.2551152784455744,-0.35884356864638794,-0.8294761827429747,-0.5175919476247464,0.9361287977234714,-1.1714750773259093,-0.6501358376331385,0.3001186551059441],"bias":0.5581049777029403},{"value":-0.6916312542825295,"weights":[0.5665370186436869,0.5402599863001433,0.6990834355721319,0.867520612281398,0.6110196416273043,1.247150221546273,0.8469280532300284,-0.5772819396893745,-0.007396401258711688,-0.5896660857544617],"bias":-0.7418624131736102}],[{"value":0.13814113227869493,"weights":[0.025884481113560745,-0.7551221298495102,-0.622987969606436,-0.7031339457572571,-0.9828549711809375,-0.32436460054794214,-0.21597809553806113,-0.6976342495801943,-0.09568514438989226,0.29931836200770606],"bias":1.0368799614381758},{"value":0.2362760535725913,"weights":[0.01265466027850233,-1.0993368473618876,-0.6680753654606546,-0.5068757709752287,-0.18811717459994637,-0.9428750548237151,0.4668594677640561,-1.0128037342675429,-0.34653070504034866,-0.16748837624876084],"bias":0.8225426011778697},{"value":0.7072673810363088,"weights":[-0.11261225607349237,0.5864153161876732,-0.6709709780721751,0.5411660540278181,-0.37889952007165634,-0.0786779401998185,0.07729104151188075,-0.9394139269283808,-0.17880299875906058,-0.7003192205388274],"bias":0.09687322068938313},{"value":0.45141350766243893,"weights":[-0.7006599994347952,0.5192655894226389,-0.33658443411972144,0.31651254634676423,0.5839550648508766,-0.05601385678462956,-0.6525841233076483,-0.8132428350849945,0.8358650700614153,0.8512355231893456],"bias":0.04777394934309566},{"value":0.6535290851757422,"weights":[-0.13031787215537116,0.37034639273749015,-0.36131768424547017,0.7439545776457285,-0.7655366558539919,-1.017769244868193,1.29256665495445,-0.33444113310808093,-0.020864755864555468,-0.9551928711992407],"bias":0.17495574038307826}],[{"value":0.002215159082331732,"weights":[0.11979619098930112,0.154679603898693,-0.5689326726392002,-0.6622608774140172,-0.08123434683459285],"bias":0.7035493320701163},{"value":-0.003029204894088108,"weights":[-1.0365517758313545,-0.6330113999677556,-0.17413456728965165,-0.43621375951506336,0.6795030792043674],"bias":0.16572410953900446}]]}