{"maps":5,"checkpoints":599,"sinceLastCheckpoint":0,"frameCounter":27931,"net":[[{"value":0.6924426536084942,"weights":[],"bias":0.40679020012616435},{"value":0.9935397628173125,"weights":[],"bias":-0.7372794463717884},{"value":0.1152273409892817,"weights":[],"bias":-0.8023344873299592},{"value":0.15799050110667287,"weights":[],"bias":1.1213982865336736},{"value":0.29784011941241084,"weights":[],"bias":-0.8604633632079081},{"value":0.7071067811865475,"weights":[],"bias":0.7415535989194726},{"value":0.18476321631988732,"weights":[],"bias":0.2605755098020106},{"value":0.10737560096420512,"weights":[],"bias":0.10461240284259006},{"value":0.06784332713261915,"weights":[],"bias":-0.5595069610973974}],[{"value":0.11773926345220093,"weights":[-0.14892057708749745,0.7662935237438557,0.7075153850392317,-0.27708500744361864,-0.7918943374787972,-0.7402151083955822,0.799313531109977,0.8410956646882911,0.5717789062541853],"bias":-0.09492776191051498},{"value":0.9156947671867764,"weights":[0.3455002694233162,0.6174748866581123,-0.09971299962943589,-0.3010161470157739,0.4311989231637805,0.9579439157354548,0.491654801620729,-0.8023101525429972,0.37016208170527326],"bias":0.6492803521291806},{"value":0.6569250703888492,"weights":[0.36380713781958246,-0.01858199084527075,-0.27441039544730783,0.9453737825167882,1.2432393491070934,0.05224729888500704,0.2071424158105607,-0.5575120358246501,0.2636372075661542],"bias":0.11658416561526559},{"value":-0.05171930794326976,"weights":[-0.38174529866261336,0.41908268845743196,0.9232281527480496,0.5679840762734012,-0.5272977536775839,-0.8517212497406376,0.11883460235745529,0.041865156862143316,-0.770272303363694],"bias":0.38517015348114403},{"value":0.44998557151816104,"weights":[-0.9792370903174382,0.598809971443935,-0.5069457404110865,-0.2961403768647443,-0.39374585739057993,-0.6666624168471866,0.6075916016324648,0.5348806345472059,0.20835242219827282],"bias":1.0970541886173852},{"value":0.5275328152480533,"weights":[-0.8445944395781576,-0.1405259488519932,0.2667395952027532,-0.24395469978365197,0.9827220094571176,0.932480282738296,-0.9627425883524634,0.3512883537748103,0.5911739483088537],"bias":0.5012202027790126},{"value":0.013821457735902064,"weights":[-0.3782618485572981,0.7299589134005401,0.12801047569919943,1.1061028419674162,0.8504559594773895,-0.7212138914759646,-0.9728645781518191,-0.5647046353506343,0.0676921218892957],"bias":-0.14653188027951064},{"value":-0.6901439322284662,"weights":[0.3546062496900713,0.28602735670659674,0.11503269588007693,-0.3791620755951319,0.4610316871056482,-0.9408767828205494,-0.43652072149132215,0.8523095620740981,-0.6723040196229071],"bias":-0.8740106191059087},{"value":0.7603076376871064,"weights":[-0.20482726977340993,0.7802246330056457,-0.787244969165998,-0.3735680553634037,0.9250847391367528,-0.7010430705410471,-0.04842693044571483,-0.523970875811446,-0.38951736395855113],"bias":0.9986903107052727},{"value":0.3797860908595774,"weights":[-0.5812098255808655,-0.12911585991637872,-0.06343034223513122,0.42623176209774194,0.6006232579031001,0.5967377095493538,0.12048955050056269,1.0737046580862357,-0.3164278669389799],"bias":0.16431993567454906}],[{"value":0.6370163339838008,"weights":[0.8013318214410418,-0.730908130861772,0.34205307703523097,-0.4573650548581921,0.13520935461578876,-0.5081569635267227,-1.1606890364004807,-0.816405151752499,0.4860827699610572,0.5055972860614876],"bias":0.2512053701292251},{"value":0.6620433805469422,"weights":[0.6877980592081353,0.9738600599971889,0.5235851901996794,-0.34353452675078,-1.183213826940345,0.13182069378754563,-0.07741598703078238,0.6355821689125092,0.24524225533627747,0.31452975362437546],"bias":0.1455800219023387},{"value":0.38241637573919096,"weights":[-0.18045346581991567,-0.23273340479885501,0.009747507315972181,-0.0678158878195454,0.4070821206239011,0.17505537817152822,0.840598642582622,-0.02501408852786531,-1.0902530876593481,0.739140993421844],"bias":0.8821255385344016},{"value":0.3158559842351727,"weights":[0.29037435574826936,-0.028356328002805728,0.17260879683038677,0.2869879822679366,0.7568694351783202,-0.3940991034629868,-1.030645974406027,0.8531106335962293,0.022195568574931088,-0.791757172201939],"bias":0.9802839771014349},{"value":-0.11878246562632468,"weights":[0.18496388569606909,0.06725312730909329,-0.7658305512931366,-0.8981817194988675,0.9124378463815694,-0.9284151367137644,-0.35070376163882994,-0.525452619008519,0.026123746855688412,0.7535832324385889],"bias":-0.3310179309499753},{"value":0.7537929798809365,"weights":[0.40621429304035184,0.8521506061029243,-0.4312696659867228,0.442182003241724,0.9648276958211475,-0.25322234607578986,-0.13808589957481704,-0.05863664730593947,0.01317139059473478,0.8364262537358684],"bias":-0.041637820446941434},{"value":0.9233906264304858,"weights":[1.1702184467212093,-0.43560139655222413,0.6038231453492557,0.4709780630748946,0.48257101448104717,0.5733344846331804,0.410635751205579,-0.6421021057924838,0.8855374046311517,0.9507354096267053],"bias":0.2915411109104384},{"value":-0.6535770420662629,"weights":[0.46078200129147356,-0.6900811773654617,-0.6472497535900185,-0.8201162459334388,0.7420758993083181,-0.4085865179128854,-0.8316738306762721,0.4222777177823338,0.7025925383494922,0.032889665411107175],"bias":-0.26523805092001923},{"value":0.5679069987977982,"weights":[0.23370796444250713,0.4837543579125469,-0.29635035293269274,-0.320908199475735,-0.7716019288025624,-0.5283736455751762,0.9582799681376779,-1.1831055722311432,-0.6265440733518236,0.3266063196429521],"bias":0.5460740253681075},{"value":0.7871845075822911,"weights":[0.5759048792682512,0.5125517056111115,0.7084302442814089,0.8333859529730104,0.6353163960158624,1.2458773869791229,0.8525443081148502,-0.5379783845851451,-0.07285310176949153,-0.5145304541009929],"bias":-0.7584089625644984}],[{"value":0.2869286238336433,"weights":[0.05361757840200376,-0.7850301949979637,-0.6847845079286602,-0.7847737387082527,-0.9805917024900548,-0.3112465826884619,-0.3039601966059947,-0.7071479517846545,-0.08168832157340147,0.36348746655679803],"bias":0.9917364247874376},{"value":-0.17298178828220984,"weights":[0.07265447255217472,-1.0675182705799584,-0.7050622419506802,-0.5075621297322392,-0.25563956706464874,-0.9738507569538597,0.48751099567039297,-0.9388131019692957,-0.3556479985417939,-0.18432402380097462],"bias":0.9018144001982626},{"value":0.3380372583484311,"weights":[-0.04171204220279068,0.6694429167753201,-0.7289623935266729,0.4898403261020104,-0.24850387988010686,-0.15669075549905082,0.08815941339737589,-0.9672719814259318,-0.19654986666075897,-0.7126655874414691],"bias":0.11422394508889609},{"value":0.7359851611982763,"weights":[-0.6441861658982907,0.5609684857816302,-0.28256670797976996,0.3193290138088017,0.6256154056173249,-0.028366283786955188,-0.6318597446254706,-0.7865382365659501,0.8500239202295973,0.876669198195877],"bias":0.12554834009778149},{"value":0.5148724861719465,"weights":[-0.08129259541608573,0.37269217829998286,-0.4212104043131628,0.7986358171346885,-0.7021791575037208,-0.9022028699200407,1.2724622669575254,-0.39354016847267137,-0.01595901756261643,-0.880203714429507],"bias":0.1808929485432163}],[{"value":0.003091380364266576,"weights":[0.11656509176710451,0.18688695345303563,-0.5714039082343113,-0.5862778953244921,-0.16295499918928738],"bias":0.7105222605963317},{"value":0.005747334503021217,"weights":[-1.028683748978077,-0.7065340713763852,-0.18912690534420734,-0.4178431188690299,0.6393394704165097],"bias":0.22096868785093327}]]}