{"checkpoints":116,"sinceLastCheckpoint":0,"frameCounter":3836,"net":[[{"value":0.7727303630905222,"weights":[],"bias":0.37113553521925885},{"value":0.9935407135495626,"weights":[],"bias":-0.6384348945028485},{"value":0.1425298329335563,"weights":[],"bias":-0.7729671414311253},{"value":0.196116135138184,"weights":[],"bias":1.0433063352804817},{"value":0.34204484166826987,"weights":[],"bias":-0.8797963252710156},{"value":0.7071067811865475,"weights":[],"bias":0.7251869291724616},{"value":0.11914522061843062,"weights":[],"bias":0.26593855801699845},{"value":0.06386932928370222,"weights":[],"bias":0.10557159150050237},{"value":0.04395746974397839,"weights":[],"bias":-0.4788685448192817}],[{"value":0.09173777986169758,"weights":[-0.08958547811638784,0.7994485567281664,0.7421484939758549,-0.2589762954397478,-0.8395789048570971,-0.7754703942855894,0.690596921408531,0.909074542753711,0.47353409691100984],"bias":-0.013566539850066839},{"value":0.9096871222075813,"weights":[0.2484846555220459,0.6465340039209281,-0.05565834113547941,-0.36050482110238957,0.42244271851026516,0.884313404759593,0.5380340214919045,-0.7378918971589743,0.46113526505762686],"bias":0.6276839546953054},{"value":0.7345431502465435,"weights":[0.38497436862759493,-0.040423097666442476,-0.26127692099206307,0.8798436912323889,1.1754661025092625,0.05781520096981117,0.19540742497944374,-0.5837168083761874,0.21186034957030625],"bias":0.2516117948401223},{"value":-0.22081532354097475,"weights":[-0.5188695744160758,0.34667334573670516,1.000257006339243,0.5887710122560368,-0.4343078333200211,-0.8602243723385831,0.20202067844513316,0.12028770487597736,-0.6812618128427903],"bias":0.32709156426230157},{"value":0.2984382859841075,"weights":[-0.9283762360405384,0.6761420317103204,-0.47395541615127684,-0.45548764851092444,-0.33076818003628583,-0.7194021971298901,0.7001906263445051,0.5511889421964696,0.21017007475493377],"bias":1.0091436777562188},{"value":0.42565272927174824,"weights":[-0.8078369901866183,-0.17306644152770745,0.27683057728592175,-0.13197264363948302,0.8812345886757328,0.8743933908352557,-0.8898549668435611,0.34745281054718674,0.646646713253923],"bias":0.3887017200156975},{"value":0.055675876240112256,"weights":[-0.4427648729014952,0.7356926104106827,0.19711218980469786,1.0284927463853657,0.9209298573368508,-0.7210172127559308,-1.0080124757047793,-0.48781982421551395,0.0132179451925164],"bias":-0.2173263009010984},{"value":-0.6582514728733325,"weights":[0.42427612333269765,0.34630557811092305,0.23044197920908183,-0.31375684491831923,0.3549608085490283,-0.9841882982680636,-0.4126761475758329,0.8661674134190979,-0.8115578774283431],"bias":-0.9136035955431573},{"value":0.7356774677252583,"weights":[-0.2625472710523439,0.7502428512416012,-0.7726010826259111,-0.4234207804950844,0.7801888254623945,-0.6435207424989647,0.04447508568658,-0.5433998071592423,-0.3593741409516368],"bias":0.9701629652578503},{"value":0.4209310924061134,"weights":[-0.5676592095803232,-0.16213557171476561,-0.05225041018401818,0.4721826632788038,0.710168587476503,0.6477234004614967,0.10618187693355756,1.0281270498052326,-0.2892774630286147],"bias":0.21210457545316713}],[{"value":0.6092994977834987,"weights":[0.7377365644313278,-0.7643168740588,0.3703264884262907,-0.5083472617277961,0.18699910785017387,-0.4277007314506358,-1.246989380836493,-0.7329923443616492,0.5928395964646864,0.44637817883069825],"bias":0.10088967272598305},{"value":0.6552685524334754,"weights":[0.6236416631665517,0.9051744235978488,0.4054763468819578,-0.3337296422850359,-1.1506771430171685,0.016905521834495202,-0.09334990670307718,0.6094879147030924,0.16921986900836844,0.3463635881560283],"bias":0.08759831094861713},{"value":0.4838422330337908,"weights":[-0.1978568695786509,-0.1505305937976379,0.03131241533775604,-0.027019126005629515,0.4118990115172669,0.15916229978647578,0.704714712167218,-0.04719438688865331,-1.1027774798313454,0.8100122224258584],"bias":0.8883381280778871},{"value":0.3282442148786018,"weights":[0.24980390747506942,-0.026381567875348868,0.2128504967722893,0.20921563279111305,0.7085493938570959,-0.4138450846604526,-1.005797875115572,0.7355900541762307,0.02724016091875285,-0.8194767535807811],"bias":1.068231947840016},{"value":-0.04703376748584521,"weights":[0.17435744001671538,0.1338684226420752,-0.705293031938936,-0.8637925004958971,0.8671388356246722,-0.8739390912376246,-0.38450725133312086,-0.6006863717527909,-0.07229778799135982,0.7698940724407491],"bias":-0.3892021555390982},{"value":0.6390814102889958,"weights":[0.39304713678526143,0.796758833346026,-0.514227297056255,0.48629664659206157,0.9800004883858153,-0.2850689964470296,-0.17444664927627646,-0.080083398713289,-0.017718215794842937,0.8642156050733413],"bias":-0.009721917967206554},{"value":0.9119077620981736,"weights":[1.1657731905186606,-0.3246961878382097,0.5075228170552908,0.5624565214049788,0.40358515193335076,0.578821995157824,0.38077620059170364,-0.6627937680141605,0.8820859566951769,0.9176607916250994],"bias":0.3023413104688752},{"value":-0.686354009063714,"weights":[0.4619267659694734,-0.6187925784367005,-0.5695128814556563,-0.7991250352142565,0.775619609194764,-0.39971644019951175,-0.8486756236210751,0.506580071992245,0.6305073430385082,-0.0291246723565955],"bias":-0.31355608902781107},{"value":0.6294517978981824,"weights":[0.30037910018741487,0.38619095023043293,-0.2509252897873186,-0.27876403412331247,-0.8154753152042375,-0.4268188129169994,0.9184425770304995,-1.0888031747535565,-0.7050157094925115,0.23885442046967909],"bias":0.6292822754161904},{"value":0.70924925822279,"weights":[0.5550149970435763,0.5955823658841887,0.6749931526895117,0.8197756555445859,0.6035370744079165,1.2734856814287359,0.834315712641714,-0.5482029025286745,0.0017672671565829648,-0.6032182104918654],"bias":-0.7782891635851463}],[{"value":0.24161512224951082,"weights":[0.0013528137591994477,-0.773733769002489,-0.5748524056154907,-0.7120105132919364,-1.0717057019486307,-0.3403456243986574,-0.21810981348951314,-0.6662738649151797,-0.09510906171503225,0.3151707599464556],"bias":1.0120530056868753},{"value":-0.11301982497132992,"weights":[0.05573752782259203,-1.072733788469866,-0.6171013825229339,-0.5084854858211615,-0.16486843143314456,-0.9535712482441308,0.48293306766847105,-1.029532981563579,-0.3164182946301047,-0.16437516664064233],"bias":0.7911001578956866},{"value":0.3325428144484073,"weights":[-0.13487102214781777,0.6173653461351909,-0.6039924340317506,0.5019883843017334,-0.34988067322326144,-0.016984383012504344,0.03185405596899471,-1.0214988601740276,-0.17890346924096445,-0.7124988894298386],"bias":0.03990036049320149},{"value":0.6591413421299277,"weights":[-0.6913238569801701,0.5291685348946977,-0.36309851583695396,0.2998202022052143,0.5857947108500975,-0.04640358017444993,-0.7330328609148954,-0.8158033647650924,0.8638860911385745,0.84678056415407],"bias":0.049622539790824566},{"value":0.5235869457139318,"weights":[-0.10224960947506198,0.34402793402145465,-0.40998900372937436,0.8290850192555888,-0.8034209017105133,-1.0174425250188166,1.2996534617494924,-0.3875594906554703,-0.022947091565145336,-0.8839152441627234],"bias":0.1802901914853312}],[{"value":-0.0049572020351645015,"weights":[0.06342031678423886,0.14039945848015378,-0.5699479216905977,-0.6535839473102372,-0.14335839670252282],"bias":0.6909842229500858},{"value":0.010724057181880124,"weights":[-1.082528464869512,-0.6740087806633526,-0.17166338981993265,-0.4385581790645016,0.664720274198741],"bias":0.19422196227290273}]]}