{"checkpoints":112,"sinceLastCheckpoint":0,"frameCounter":8387,"net":[[{"value":0.190903939410929,"weights":[],"bias":0.3096930939066067},{"value":-0.9535543761918723,"weights":[],"bias":-0.5628667632033318},{"value":0.015997952393132134,"weights":[],"bias":-0.6624170015382774},{"value":0.019996001199600145,"weights":[],"bias":1.13564141088641},{"value":0.03597669465035493,"weights":[],"bias":-0.9380375566764517},{"value":0.37139067635410367,"weights":[],"bias":0.7794037003960058},{"value":0.29435446537590554,"weights":[],"bias":0.2538082022926493},{"value":0.16567821750011283,"weights":[],"bias":-0.04402454176172001},{"value":0.11522734098928168,"weights":[],"bias":-0.5754532664551821}],[{"value":-0.6415662966177268,"weights":[-0.11272345257430665,0.750480132993661,0.7239601086818634,-0.2990286949199557,-0.7937190334965865,-0.8093503182307891,0.570400907905208,0.8762920619122657,0.42634198092947956],"bias":-0.13791602045994608},{"value":0.5018282678993099,"weights":[0.22803087145712114,0.5031877110882306,-0.04160057942160239,-0.3330289317065297,0.49447327572201655,0.886083520361242,0.6453885595813048,-0.9003608671304402,0.44884746016314253],"bias":0.5843848658700805},{"value":0.270346277926538,"weights":[0.44369552503952114,-0.06700927315787365,-0.22358903722084378,0.924150177355189,1.162637401579443,-0.042238299520241315,0.06417695726612102,-0.49652865634289883,0.15165352089674938],"bias":0.13705756268030328},{"value":-0.34556416516262606,"weights":[-0.542959927728411,0.3598176951495514,0.9364248964452665,0.6042476876139882,-0.4866973173669947,-0.8393409997320805,0.07981165171868636,0.34718782356121514,-0.7527860264701266],"bias":0.38640567577980445},{"value":0.1099206419076137,"weights":[-0.9127363629543067,0.7597186842565369,-0.6045031245627884,-0.4722094758611705,-0.22220460836259215,-0.5938048070494308,0.5606704719771515,0.7913753522573097,0.13060340761482997],"bias":0.9457110964344315},{"value":0.3119170423545683,"weights":[-0.7168912259176727,-0.0684930507526943,0.36332325960096296,-0.16796799750585123,0.9612108395192325,0.7567504900305969,-0.9673447585491354,0.21970879196040277,0.7747030066527033],"bias":0.24083076997877367},{"value":-0.8498697260585232,"weights":[-0.3339214754254139,0.7219149226316492,0.19304137785418896,0.982293111420848,0.8378164329512312,-0.800574773221111,-1.0609245498307949,-0.5615539983751953,0.0640440377281953],"bias":-0.21814643234435777},{"value":-0.8389027844668645,"weights":[0.2745738567189191,0.3765263430209597,0.13367721564348367,-0.25719169948715853,0.46613492914224225,-0.9973457223353229,-0.4599241667205932,0.9457676575456001,-0.7904300125374869],"bias":-0.8082767007205665},{"value":-0.16623973496631925,"weights":[-0.3868661493071692,0.8207842073405887,-0.9180551845677098,-0.39940186407598877,0.5816869729862835,-0.5153833419625077,0.015141417148913983,-0.524186986862434,-0.34190053079434435],"bias":1.0028716513570315},{"value":0.5747232721512433,"weights":[-0.5753296281161725,-0.03593849190497079,-0.2040943673260276,0.33352695014019745,0.7354301037381812,0.6974760465900698,0.25737158999370185,1.0687711515455778,-0.17626948506010415],"bias":0.256442377834042}],[{"value":0.5751933839949306,"weights":[0.8804317557017185,-0.9485514233699982,0.3187029633794594,-0.5419259547901359,0.12966386702925342,-0.4233643137684217,-1.0824328129134189,-0.7754695118867246,0.6398473211639482,0.38694135030908744],"bias":-0.09809445892115777},{"value":0.015084459042837388,"weights":[0.475560518284804,0.869830356293622,0.5806582659240112,-0.22096504540702516,-1.0398798843929429,-0.06987200882740777,-0.08916030970976382,0.6156723771880163,0.2650208508530694,0.3618226591608063],"bias":0.06327016426911548},{"value":0.7783805536717386,"weights":[-0.29144306343332543,-0.1476122394660529,0.12457299061112607,-0.03149587283421998,0.4607075136880951,0.17506881953878772,0.7093051659214119,-0.17038208451683895,-1.1575639173668058,0.7012281855176079],"bias":0.8415924433828413},{"value":0.3608730631021312,"weights":[0.33647362988604074,-0.16117247182165317,0.2022826682911889,0.16988491755194357,0.785220213026508,-0.4280499475981051,-0.9724560562954542,0.7822639272235415,0.04722638959515092,-0.853447931029864],"bias":1.0630522400378695},{"value":0.6710641627236185,"weights":[0.05452811113136748,0.1270590166222359,-0.6432082436038786,-0.8505729639576918,0.8590471016040349,-0.7079031743235271,-0.2913851340225213,-0.6962115050526894,-0.13853500506688154,0.7897732916137535],"bias":-0.42592928667286506},{"value":0.417011045769735,"weights":[0.4589402431097102,0.7418854975697048,-0.515103026978356,0.5637144527354454,1.0393248398922752,-0.3161251424667593,-0.11608452190790947,-0.26532653823394303,-0.035462174547557554,0.6629752910284975],"bias":-0.00879591519068837},{"value":0.09917477022151694,"weights":[1.1284956689389127,-0.3235542461557082,0.5164458453531606,0.629528528565902,0.30547028427217093,0.6538919463840405,0.3168342509507474,-0.657348025305509,0.8480150783805579,0.8884462877038809],"bias":0.17460512543979378},{"value":-0.38266064661403365,"weights":[0.3562915492584252,-0.4818565568790793,-0.5224558346954848,-0.7399536701175026,0.8475798734915384,-0.38305060653560935,-0.7952786408162443,0.4103499783254008,0.6316717201770967,0.03693030799859394],"bias":-0.279790039861727},{"value":0.5354737084490261,"weights":[0.40516212425928255,0.35893365022396095,-0.23619338438046145,-0.39513853205525873,-0.8172569146068023,-0.4502038677417928,0.946196208770777,-1.1180627227300104,-0.6189626405595324,0.2734365844883971],"bias":0.477567211390907},{"value":-0.6935107298376274,"weights":[0.6094716699925824,0.5222683184341963,0.7333297423923194,0.7660750981376164,0.5419562589621174,1.2000533970019476,0.7072813940329109,-0.44576707527304854,-0.004516659354143561,-0.5079570870585328],"bias":-0.6827736234588018}],[{"value":-0.4611073237890615,"weights":[-0.006833321537795513,-0.7726059288374397,-0.3989759229460982,-0.5956423771080804,-0.9845508126540748,-0.4442795562967548,-0.07645103413977813,-0.7133266255783983,-0.12039417678208729,0.40868696469417215],"bias":0.9499254886334582},{"value":0.21762932892239517,"weights":[-0.02435101874952003,-1.12974867947754,-0.5156205675773551,-0.38429436793805855,-0.22330567848038618,-0.9572601312133362,0.46331108218062805,-1.0712650322160264,-0.28281580953718005,-0.23179925390866568],"bias":0.8778982832567507},{"value":0.5090418718601072,"weights":[0.07213786572490778,0.6478009283994467,-0.5065801196230915,0.46587161790176873,-0.32917060343343435,0.03760339764186915,0.10442020039868342,-0.9119575309159469,-0.14769525558463203,-0.8538044542984464],"bias":0.09917754454569304},{"value":0.054131298447930354,"weights":[-0.6149438359635757,0.6770443943285497,-0.45803980032542274,0.25064789832896217,0.6061260007331271,-0.0839644221837687,-0.7944862204248291,-0.8140558604744562,0.9091551039776403,0.8277152222205055],"bias":0.14653799044973714},{"value":-0.16935707444448403,"weights":[-0.09309875358586196,0.3767757872668835,-0.36095525457556155,0.7818986089273168,-0.8647334220721126,-1.1999440773189722,1.2273967325057809,-0.5466835852666558,-0.10440269892304345,-0.8656070431466785],"bias":0.080178987239814}],[{"value":0.12938805761123826,"weights":[0.14060725874246927,0.07496840901455996,-0.5823000685455602,-0.5968753000077204,0.01728579348355258],"bias":0.5106568447022991},{"value":0.08813387127044885,"weights":[-1.0659660852631472,-0.7491460308942992,-0.27347346166481373,-0.5149880957988981,0.7234846141680934],"bias":0.049603205720129134}]]}