{
    "checkpoints": 116,
    "sinceLastCheckpoint": 0,
    "frameCounter": 1575,
    "net": [[{
        "value": 0.9586304737051099,
        "weights": [],
        "bias": 0.4697316772068462
    }, {
        "value": 0.9935479679053245,
        "weights": [],
        "bias": -0.5356570026119981
    }, {
        "value": 0.0955606663526895,
        "weights": [],
        "bias": -0.7021263588718871
    }, {
        "value": 0.13086482905991,
        "weights": [],
        "bias": 1.0107677416771474
    }, {
        "value": 0.24436048415616113,
        "weights": [],
        "bias": -0.8841704793352594
    }, {
        "value": 0.7071067811865475,
        "weights": [],
        "bias": 0.6209746947173133
    }, {
        "value": 0.24070818783202322,
        "weights": [],
        "bias": 0.23093343470785038
    }, {
        "value": 0.13475945456421654,
        "weights": [],
        "bias": -0.2713299343243705
    }, {
        "value": 0.09556066635268953,
        "weights": [],
        "bias": -0.6770631307766513
    }], [{
        "value": -0.29736603412282353,
        "weights": [-0.19360861925386263, 0.7509052952948607, 0.6962696007358762, -0.5378270756424512, -0.8373355387638818, -0.8287479432411858, 0.47553950668616124, 0.8279148173728075, 0.4745331263470725],
        "bias": -0.3488271011666377
    }, {
        "value": 0.9114861828883886,
        "weights": [0.38607695643520185, 0.4282372333323474, -0.06528252973908868, -0.40759124279592124, 0.505450135535398, 0.9752904752347382, 0.5844343956173601, -0.8930092664437262, 0.45839397288920886],
        "bias": 0.602655727717591
    }, {
        "value": 0.7080048590712271,
        "weights": [0.3509762058958314, 0.016925744343753324, -0.08873432786175993, 0.715738429159049, 1.121319675144172, -0.06510771859651912, 0.19467140571556824, -0.6830241642715389, 0.2221097862256854],
        "bias": 0.36007839231655003
    }, {
        "value": -0.5869348151246413,
        "weights": [-0.5047656579695984, 0.18958988577776698, 1.023349478391787, 0.5345457682714215, -0.5079508318061692, -1.0252258655325153, 0.1396398653402563, 0.2222085143928988, -0.9187612484638034],
        "bias": 0.2761411734700924
    }, {
        "value": 0.4246196350056027,
        "weights": [-0.8555896077510811, 0.8105275897239425, -0.5225561250700292, -0.40567720337841345, -0.2994825775383736, -0.6054431520641707, 0.4464837066363938, 0.8077471213016477, 0.34834728702537604],
        "bias": 0.8386037107035381
    }, {
        "value": -0.04516257862626357,
        "weights": [-0.7432741338391463, 0.06594268379136033, 0.31698351600079944, -0.21502124464826894, 0.9464166240942993, 0.6072326228736483, -0.9439229956484663, 0.12615814844300194, 0.8522170707590591],
        "bias": 0.06777230006176442
    }, {
        "value": -0.3382544013663896,
        "weights": [-0.2700551199826283, 0.6007332302701175, 0.1885583769915607, 0.7099902456449017, 0.9246455308422447, -0.7037574189366171, -0.8596487816727615, -0.4793426462522672, 0.21323659619082502],
        "bias": -0.28551929661504316
    }, {
        "value": -0.6751974262118473,
        "weights": [0.4153010720311322, 0.3123080175194927, 0.10865569881024, -0.10480607879502564, 0.5276190361913343, -1.0154098096525919, -0.5950992912949213, 0.9961188430205963, -0.7579554193042675],
        "bias": -0.9499193753850037
    }, {
        "value": 0.6991022077872554,
        "weights": [-0.4757937055722942, 0.9960950472572101, -0.9225790765315636, -0.42070311313463987, 0.4194210622369015, -0.4746895508827053, 0.10667421423206665, -0.5060161264683882, -0.25067790352304414],
        "bias": 0.8870295452600133
    }, {
        "value": 0.6432590621362361,
        "weights": [-0.6606332461196329, 0.21522822878197628, -0.13018867760119096, 0.4351382043895781, 0.8276495137428937, 0.6531645811624508, 0.308860530046679, 0.9818192481921721, -0.16859003140415163],
        "bias": 0.36046337699424325
    }], [{
        "value": 0.6809335855714128,
        "weights": [0.8874927431228922, -0.8145879967080805, 0.20474110172292748, -0.6061605682129709, -0.09468546730176441, -0.5238196348020308, -0.9936259349103699, -0.9516873855431802, 0.686842131541489, 0.3808098931156643],
        "bias": -0.2517990614963175
    }, {
        "value": 0.36748202612599756,
        "weights": [0.5114585453822951, 0.7104893865739444, 0.6456663359499376, -0.16589474703511775, -0.8033292078560296, -0.2400577393133127, 0.016127265464202664, 0.7745929787695581, 0.16044665859519947, 0.18905691832326116],
        "bias": -0.029941369522689394
    }, {
        "value": 0.2265707050639156,
        "weights": [-0.2565107772049719, -0.22813299772992973, 0.030591556407941103, 0.022833522528310238, 0.34674067543229287, 0.21685441339537764, 0.5659128402235178, -0.024239789969881905, -1.0790335268676294, 0.6530888342975968],
        "bias": 0.7278914366158202
    }, {
        "value": 0.16096900620275004,
        "weights": [0.5304303991734521, -0.272289621813727, 0.1777820223377778, 0.1973421765956112, 0.949917775483861, -0.3030581143794847, -0.8592726284406396, 0.7998612906543998, 0.17105093844239555, -0.8530035850350763],
        "bias": 0.8204636431393986
    }, {
        "value": 0.7807360671497044,
        "weights": [0.016714968254631576, 0.20338337065824086, -0.4573064723356973, -0.9665607720279833, 0.7868180437971896, -0.7776229978896452, -0.26142933970707294, -0.7997014296284697, -0.1794722861285183, 0.7521381776899791],
        "bias": -0.5304419736390844
    }, {
        "value": 0.7135152551585486,
        "weights": [0.4927036507731624, 0.7767748387900519, -0.530216391581229, 0.5668207431048815, 0.9172688087994617, -0.2803605431814455, -0.16914070356993924, -0.2344060712536445, -0.2164041046598824, 0.7209404687477069],
        "bias": 0.23485525505962968
    }, {
        "value": 0.5995720091223584,
        "weights": [1.1108765641232095, -0.40472613628031257, 0.3541435339089206, 0.5909048688695634, 0.1365008763238592, 0.6742667711090489, 0.240287420185487, -0.6030897934031969, 0.8654645760360188, 0.8546012006828326],
        "bias": 0.036277231719304984
    }, {
        "value": -0.2967323990658476,
        "weights": [0.6461386346840239, -0.6518473689048877, -0.6039960390669068, -0.8051862374717244, 0.9174066716436582, -0.3893234133061717, -0.5477899088844967, 0.4258001129888683, 0.749797558160959, -0.11095390706920043],
        "bias": -0.32713546667809307
    }, {
        "value": 0.4936067096681226,
        "weights": [0.40340747391963827, 0.3092261432422306, -0.2668928790165808, -0.5157185734221296, -0.8718854719302096, -0.45376150550511407, 0.8388044592198804, -1.1180821411979716, -0.5003166596514492, 0.22380060730876794],
        "bias": 0.37628245029201624
    }, {
        "value": -0.084219076579206,
        "weights": [0.4436051259039343, 0.5516660499538806, 0.8439152537276093, 0.7265256821791527, 0.560209506673977, 1.1299087677119253, 0.8727540649883898, -0.511666511069139, 0.06506494771873739, -0.448551566524038],
        "bias": -0.620576678912211
    }], [{
        "value": -0.4548946336433731,
        "weights": [0.013970967116820235, -0.9204890926429791, -0.3884314723463669, -0.5873831891515036, -0.8301928490575738, -0.4853635572830255, -0.26186753491160014, -0.7893150177027204, -0.0017158586352866642, 0.4913846411401042],
        "bias": 0.9600027878107895
    }, {
        "value": 0.03299559720886362,
        "weights": [0.12593900099159688, -0.9057700479510721, -0.6162304424915833, -0.20753910774285417, -0.1817201338764849, -0.9105683415634268, 0.39507150256831036, -1.0027059669957823, -0.3589602472282833, -0.3578418261696788],
        "bias": 0.8573576017757
    }, {
        "value": 0.06556867571743898,
        "weights": [-0.04169755783985478, 0.5450001478159825, -0.5768864994958649, 0.49165250936186283, -0.40131785279389337, -0.043777588391922105, 0.07375015924182429, -0.9564948281028056, -0.05891283159966442, -0.9990914723852192],
        "bias": -0.09315467517705832
    }, {
        "value": 0.48676422092783606,
        "weights": [-0.6891632101399328, 0.7868901299162406, -0.43134239661342244, 0.19678591073037488, 0.6023987576402885, 0.015270943695204486, -0.7258614687212107, -0.6855088046514458, 0.8268134601003405, 0.8306586187847789],
        "bias": 0.21581516467124123
    }, {
        "value": -0.2785534752703537,
        "weights": [0.048572197124877384, 0.17596459847884105, -0.35918829862856183, 0.8864058426772546, -1.0549015169008873, -1.1096657265013021, 1.1549956395127179, -0.5766961436645147, 0.08837454945714572, -0.8580594958088141],
        "bias": 0.18677499826720173
    }], [{
        "value": 0.008813427610017199,
        "weights": [0.20386499125270158, 0.2623144062561948, -0.7422302762181874, -0.6223330346120661, 0.09077086380953069],
        "bias": 0.4697766905528384
    }, {
        "value": -0.031067133055951185,
        "weights": [-0.9116261211420936, -0.527840371924657, -0.31590741500204955, -0.4806723383500545, 0.5896437409413167],
        "bias": -0.009424518133305193
    }]]
}
